10 16
0.182267 0.267692 0.509596 0.766434 0.28753 0.793793 0.174407 0.772405 -0.0701104 0.327738 0.503821
0.407809 -0.109823 -0.0041042 -0.28891 0.897457 -0.772662 1.03493 -0.338666 -0.111711 0.0767493 1.42293
0.928026 0.968913 0.409819 0.312215 0.4865 0.136051 1.19516 1.01619 -0.513352 0.0220824 -7.20111
-0.789327 0.335374 -0.923149 -0.221025 0.701654 0.950724 0.592728 -0.682884 0.776438 0.776589 -1.53103
1.02799 0.0293484 0.670669 0.674174 0.0064955 0.123241 0.63341 0.434497 -0.691099 0.516487 0.073938
0.733598 0.624184 -0.264828 0.534952 1.33664 0.965509 0.50214 -0.33972 0.28773 0.405892 -6.92276
-0.578321 -0.734818 0.439674 0.364053 -0.200519 -0.674382 0.0243368 -0.837047 -1.0692 -0.461501 -0.785147
0.610134 -0.316692 0.599054 -0.171375 0.608731 0.153502 1.27086 1.18856 0.740837 0.276955 -7.21476
-0.116186 0.387833 0.0404223 0.96094 0.554839 -0.645196 -0.723306 1.09083 0.495239 0.467986 1.94207
0.259639 -0.742314 -0.663368 -0.365333 -0.826279 0.417376 -0.45078 0.136085 -0.354214 -0.431543 4.23788
0.598536 -0.456971 0.33783 0.729223 1.44044 1.38159 -0.331606 0.766257 -0.117927 0.730793 -7.38901
-0.577766 1.08373 0.410643 0.268127 -0.388991 -0.0629837 0.040857 0.0577015 -0.406723 0.351446 0.946061
-1.05679 -0.688007 -1.15395 -0.0192322 -0.0560857 -0.728786 -1.09833 0.180873 -0.975636 0.515287 7.40894
-0.165704 0.421997 0.733432 -0.881382 -0.714351 0.348097 0.767336 0.444262 -0.716357 1.03778 -1.03208
1.06352 0.871528 0.063956 0.146896 1.06412 -0.77343 0.330984 0.0289769 0.593668 -0.844884 0.548095
-1.05706 -0.25697 -0.572274 0.822641 -0.896139 -0.420191 -0.545608 -0.181347 -0.899077 0.236942 -0.618476
16 6
-0.178507 -1.08775 0.604223 -0.734802 -0.640638 -1.13425 0.317831 0.554224 -1.01212 0.217283 0.369028 0.422595 -0.568736 -0.688305 -0.911875 -0.227749 -3.24436
0.310289 0.0994641 -2.88947 -1.10932 0.573822 -2.06153 -0.877804 -2.5782 0.452111 1.76946 -2.10761 0.24695 2.73406 -0.793208 0.862078 0.0317315 1.63365
-0.787631 0.393261 2.24197 0.166239 0.0547436 2.79611 0.0424994 2.46171 -0.787101 -0.898581 3.0846 0.391794 -2.71706 0.221618 0.583325 0.821487 -3.75821
-0.221816 -1.25832 -0.874777 -0.025144 0.0949016 -0.47761 -0.246165 0.0599237 0.190673 -0.632521 0.0421142 -0.816626 0.492266 0.508154 -0.124842 0.123037 -5.51028
-0.0198232 -0.069871 -0.366208 -0.361182 0.516323 -0.759313 0.259406 -0.429309 -0.573758 0.129966 0.107007 -0.394399 -1.15112 -0.397407 -0.773633 0.391309 -4.54023
-0.0112386 -0.700552 -0.6699 -0.52156 -0.0486629 0.311372 -0.160848 0.642979 -1 -0.854826 -0.461187 -1.04169 -0.0265671 -0.50001 -0.102845 0.0787554 -3.76985
