10 16
0.187937 0.226262 0.497885 0.744746 0.25182 0.789026 0.131494 0.760895 -0.0943955 0.292216 0.275595
0.50101 -0.026349 -0.167027 -0.37406 0.957484 -0.679645 1.07509 -0.492348 -0.211629 0.163953 0.413699
1.01136 0.665207 0.31194 0.309437 0.465912 0.151605 0.891481 0.910609 -0.515923 0.001933 -7.90517
-0.747723 0.234703 -0.92682 -0.129865 0.708738 0.966588 0.490828 -0.686574 0.869779 0.783671 -1.47173
1.16815 -0.266325 0.352346 0.560569 -0.246457 0.269347 0.315803 0.125416 -0.827674 0.261716 -3.59899
0.917252 0.507254 -0.255632 0.781751 1.43102 1.07023 0.385427 -0.33055 0.553299 0.501525 -5.98696
-0.57611 -0.7391 0.444407 0.372588 -0.204282 -0.673894 0.0197472 -0.833116 -1.06056 -0.465114 -0.76598
0.624997 -0.428431 0.601873 -0.0801382 0.542105 0.150824 1.15056 1.18398 0.842546 0.211626 -7.29961
-0.14248 0.430113 0.0455368 0.959947 0.554488 -0.66438 -0.679172 1.09596 0.494241 0.467636 1.97792
0.225215 -0.783603 -0.794813 -0.593358 -0.936801 0.392377 -0.495005 0.0163955 -0.601238 -0.543972 3.01795
0.608631 -0.456363 0.263462 0.699053 0.998843 1.38807 -0.331008 0.690996 -0.147544 0.286506 -8.44445
-0.525008 1.12378 0.430656 0.243835 -0.506601 -0.0062142 0.104265 0.0891187 -0.444114 0.238195 0.415644
-1.22935 -0.268855 -0.992041 -0.00265004 -0.0494443 -0.743958 -0.66277 0.335499 -0.957286 0.521836 8.35183
-0.0261826 0.449614 0.724447 -0.867896 -0.875709 0.421257 0.786487 0.443692 -0.7028 0.86772 -1.2784
1.05336 0.869887 0.055263 0.139667 1.10831 -0.79914 0.329459 0.0210066 0.585986 -0.797273 0.556065
-1.06011 -0.266592 -0.589187 0.769695 -0.916125 -0.422807 -0.555332 -0.198095 -0.954585 0.21575 -0.838557
16 6
-0.123671 -1.03485 0.485198 -0.829409 -0.712296 -1.1057 0.323637 0.488852 -0.990562 0.253095 0.279114 0.457045 -0.415939 -0.71318 -0.918019 -0.223131 -2.63271
-0.219261 -0.215685 -2.95501 -1.4352 0.267188 -2.22902 -0.892639 -2.66873 -0.0496079 1.54768 -2.21714 -0.0836763 2.26672 -1.01807 0.369452 0.00217006 -3.75276
-1.44552 -0.335688 1.58409 -0.53753 -0.655605 2.15323 0.0424994 1.80383 -1.44498 -0.89878 2.44172 -0.327281 -2.71706 -0.5 -0.154451 0.821487 -10.3221
-0.218658 -1.2561 -0.874523 -0.0364852 0.0754051 -0.474579 -0.246162 0.0476652 0.191822 -0.629095 0.0311656 -0.815828 0.494009 0.510171 -0.125004 0.123029 -5.47851
0.305649 0.71351 1.36215 0.464595 2.00568 0.735202 0.203721 1.40044 -0.203643 -0.12627 1.9372 0.310825 -2.99381 0.559335 -0.328324 0.328486 -1.90301
-0.0468355 -0.700668 -0.669905 -0.521776 -0.076737 0.305451 -0.160853 0.64295 -1.00028 -0.854895 -0.466966 -1.04183 -0.0268429 -0.500086 -0.144359 0.0787402 -3.90639
