4 16
0.143354 0.183931 0.442641 0.719584 1.01478
0.132186 0.733303 0.081096 0.650877 -2.56017
-0.139821 0.261634 0.306552 -0.216128 0.157606
-0.154033 -0.403684 0.775952 -0.906027 -1.42073
0.969418 -0.402761 -0.183434 0.00200363 -0.987354
0.578177 0.627387 0.0592082 -0.0408135 -0.472939
0.109447 -0.215396 0.843376 0.655161 -0.3107
-0.890078 -0.328325 -0.83733 0.273384 -1.38178
-1.00542 -0.257464 0.656582 0.88593 -0.811884
0.472545 -0.766402 0.682787 0.669362 -1.51616
0.935802 -0.0546716 0.591455 0.588299 -0.165834
-0.111106 0.0556029 0.562112 0.340594 -1.21716
-0.75914 0.455848 0.291618 0.172057 0.820219
-0.747705 0.0821693 0.885091 0.49734 -0.0830066
0.207143 -0.646453 -0.0221059 0.104932 1.37323
-0.555989 -0.658753 0.501389 0.40577 -1.44548
16 6
-0.457737 0.15873 -0.275692 0.754075 0.293938 -0.940718 -1.04191 0.896334 0.227904 0.186948 0.155712 -0.762992 -0.73439 -0.440372 -0.908982 0.421574 -2.26117
-0.4855 0.144144 -0.377116 -0.377916 0.070527 -1.02756 -0.240579 0.24493 0.907316 0.818759 -0.923547 0.218896 -0.673489 0.155571 -0.759684 0.939503 -2.34697
0.0965871 0.0786756 -0.669498 -0.227582 -0.186626 -0.215743 -0.702009 0.199037 -0.802062 -0.466702 -0.99643 0.224121 0.134819 -0.549474 -0.911978 0.466428 -1.94482
-0.469902 0.847511 -0.183767 0.292414 0.641336 -0.932514 -0.787587 0.218119 0.540862 0.446486 -0.781276 0.818802 0.809754 0.670808 -0.087002 0.0256508 -0.660543
0.896042 -0.806499 0.206255 -0.025571 0.526227 -0.917233 -0.83855 -0.0540001 -0.227703 0.90452 -0.674776 -0.0985183 -0.167218 0.135927 -0.620712 0.428747 1.32156
-0.559388 0.656651 -0.340987 0.786711 -0.985267 -0.730668 0.196702 0.0881284 0.019564 0.579935 -0.677741 -0.115049 -0.112643 0.650338 -0.966102 0.75677 -3.57139
