4 16
0.140121 0.190261 0.446362 0.719805 0.830315
0.153089 0.710248 0.0700438 0.655912 -1.69969
-0.124314 0.25018 0.30246 -0.210354 0.749854
-0.146144 -0.407225 0.775529 -0.902264 -1.19007
0.945032 -0.452782 -0.226457 -0.0316379 -0.579936
0.60928 0.627116 0.0675051 -0.0210357 0.206242
0.142492 -0.213741 0.853601 0.676869 0.373572
-0.880066 -0.32759 -0.834067 0.280052 -1.17885
-0.981341 -0.26586 0.657049 0.898283 -0.246314
0.551465 -0.71982 0.738199 0.736606 -0.660023
0.971986 -0.0511971 0.603863 0.612675 0.552443
-0.088822 0.0396873 0.556627 0.349089 -0.481601
-0.763498 0.44126 0.279823 0.164005 0.88635
-0.72327 0.0736731 0.885585 0.509888 0.589625
0.0802336 -0.784254 -0.156934 -0.0259103 1.15279
-0.511207 -0.631673 0.533303 0.444165 -0.970928
16 6
-0.40605 0.174099 -0.234202 0.764766 0.323036 -0.901297 -0.99925 0.905023 0.250292 0.21417 0.205511 -0.735789 -0.692301 -0.400505 -0.86052 0.435066 -1.61237
-0.450764 0.180934 -0.34326 -0.376296 0.0932996 -0.988413 -0.201376 0.245638 0.921814 0.857362 -0.884913 0.254561 -0.656321 0.193395 -0.754609 0.946481 -1.99216
0.169696 0.10689 -0.611301 -0.214936 -0.145956 -0.159104 -0.641486 0.209138 -0.772682 -0.424811 -0.927151 0.26503 0.189684 -0.492902 -0.852046 0.483654 -1.06636
-0.623152 0.859481 -0.283021 0.307154 0.622478 -1.00088 -0.844358 0.230288 0.62891 0.333112 -0.848809 0.899057 0.899232 0.7093 -0.102099 -0.00196237 -1.01682
1.07667 -0.802433 0.321838 -0.0447621 0.557476 -0.844455 -0.777817 -0.0703548 -0.314325 1.05088 -0.600573 -0.169242 -0.257161 0.109255 -0.6224 0.458458 1.74455
-0.495653 0.70243 -0.285818 0.792859 -0.948135 -0.672235 0.256833 0.092537 0.0425577 0.631846 -0.614168 -0.0661983 -0.07514 0.707701 -0.937579 0.769617 -2.87192
