10 16
0.097627 0.185689 0.430379 0.688532 0.205527 0.715891 0.0897664 0.694503 -0.15269 0.247127 -0.364034
0.291788 -0.231237 -0.124826 -0.404931 0.783546 -0.886574 0.927325 -0.454687 -0.233117 -0.0446697 0.760952
0.58345 0.624337 0.0577898 -0.0400457 0.136089 -0.21443 0.851193 0.672158 -0.857928 -0.325208 -0.171474
-0.825741 0.296344 -0.959563 -0.263517 0.66524 0.91431 0.556314 -0.719298 0.740024 0.740175 0.836471
0.957237 -0.0527839 0.598317 0.601822 -0.0770413 0.0409549 0.561058 0.357759 -0.763451 0.441265 -0.871705
0.279842 0.16404 -0.713293 0.0747465 0.889338 0.517231 0.0436966 -0.788185 -0.170676 -0.0527992 -0.566356
-0.470889 -0.627335 0.548467 0.473836 -0.0876994 -0.566899 0.136868 -0.729564 -0.96242 -0.351718 0.384944
0.235271 -0.70065 0.224191 -0.555357 0.233868 -0.227022 0.887496 0.805197 0.363641 -0.1001 0.130378
-0.280984 0.226127 -0.125936 0.804697 0.395262 -0.801439 -0.879549 0.939618 0.333533 0.30628 0.133203
0.341276 -0.658181 -0.579235 -0.283696 -0.742147 0.501372 -0.369143 0.215661 -0.272578 -0.349906 0.730205
0.140393 -0.923149 -0.122797 0.268548 0.976748 0.917899 -0.79591 0.305581 -0.582246 0.270118 -0.469221
-0.677381 0.990599 0.306217 0.163701 -0.493417 -0.171263 -0.0673785 -0.050605 -0.511149 0.24702 0.0179379
-0.682061 -0.323985 -0.77925 0.349505 0.312659 -0.365597 -0.723634 0.556691 -0.606835 0.899142 0.0464962
-0.26255 0.325054 0.641986 -0.972857 -0.805797 0.245692 0.67589 0.347319 -0.807803 0.94389 0.833446
0.952919 0.756387 -0.0626976 0.0192487 0.953522 -0.888571 0.209691 -0.0976816 0.478527 -0.960025 -0.812119
-0.921624 -0.116578 -0.434386 0.959173 -0.759607 -0.281111 -0.40772 -0.038213 -0.762545 0.377322 0.842315
16 6
0.151893 -0.833775 0.858592 -0.444563 -0.362862 -0.981287 0.334821 0.684684 -0.736404 0.294348 0.432654 0.682772 -0.421188 -0.47054 -0.633617 -0.204359 0.148651
0.173026 0.105643 -0.959785 -0.670119 0.65788 -0.260384 -0.990609 -0.707116 0.355633 0.139237 -0.459984 0.407475 0.470388 -0.423047 0.924377 -0.133424 -0.93275
-0.502494 0.512213 0.152315 -0.207803 0.184084 0.792077 0.144504 0.277842 -0.553837 0.783109 0.905498 0.360111 -0.105749 -0.101605 0.692817 0.957142 0.306402
0.398959 -0.767596 -0.405126 0.534047 0.627596 -0.17636 -0.206989 0.350878 0.762206 -0.500407 0.162546 -0.373563 0.763471 0.930832 0.385063 0.17693 0.937924
0.450509 0.319337 0.00264871 0.0664124 0.912167 -0.538934 0.28798 -0.210261 -0.15229 0.237617 0.212786 -0.050265 -0.961614 -0.0597356 -0.39685 0.432149 0.304206
0.320347 -0.424018 -0.419845 -0.233076 0.236031 0.49834 -0.142463 0.756904 -0.729052 -0.794273 -0.403435 -0.815252 0.13993 -0.291907 0.181746 0.103633 -0.358006
